-46
0
0
0
0
0
0
0
0
0
0
0
0
0
0
0
0
0
0
0
0
0
0
0
0
0
0
0
0
0
0
0
0
0
0
0
0
0
0
-0.5
-0.5
-0.5
-0.5
-0.5
0.5
1
1.5
0
0
0
0
0
0
0
0
0
0
0
0
0
0
0
0
-0.5
-0.5
-1.5
-2
-3
-3.5
-3.5
-2.5
-1
-2.5
-2
-3
-5
-3.5
-2.5
-2
-1
-0.5
0
0
0
0
0
0
0
0
0
0
-0.5
-1.5
-2.5
-3
-5
-8.5
-6.5
-3
0
-0.5
0
-5.5
-8.5
-4.5
-3
-4
-3
-1.5
-2
0
0
0
0
0
0
0
0
-0.5
-0.5
-4
-7
-4.5
-6.5
-10.5
-6
-0.5
-2.5
-2
-3.5
-3.5
-2.5
0
-5.5
2
1
-3.5
-2.5
-1.5
-0.5
0
0
0
0
0
-0.5
0
-1.5
-6.5
-7.5
-3.5
-3
-10.5
0.5
10.5
16.5
5.5
-3.5
-1
1
0.5
-5
-1
3
0
-4.5
-5
-2.5
-0.5
0
0
-0.5
-0.5
-1.5
-1
-2
-7.5
-7
-1.5
-7.5
-1
-3.5
5.5
-4.5
2.5
3
2.5
2
-0.5
1
-5
3
1.5
-9.5
-8
-4
-1
0
0
0
-1.5
-3
0
-2
-4.5
-1
0
-7.5
-1.5
0
0
1
-2.5
3
3
3
4.5
-1
-2.5
-6
-1.5
-6
-9
-3.5
-0.5
0.5
0
0
-0.5
-3
-4.5
1.5
-3.5
0.5
-7
-1
-2
-6
2.5
2
-2
5.5
5.5
8.5
11.5
-1.5
4
1.5
0
-4.5
-8.5
-4
-1
0
0
0
-1
-2.5
0
-5
-1.5
1
3
1.5
1
9.5
-1
1.5
8.5
6
8
12
7
0
11
2
2
-8
-9
-5.5
-0.5
0
0
-0.5
-1.5
-4
2
1.5
3
-4.5
1
-4.5
11.5
-5.5
-3.5
-1
-1
1.5
-2
11
5.5
0.5
11.5
2.5
10.5
-4
-8
-5
0
0
0.5
-0.5
-2
-8
1
1.5
-2
-5.5
-2.5
-3
3.5
-1.5
-3
-3
-7.5
0
-7.5
-0.5
4.5
-1
9
2.5
19.5
1
-7
-2.5
0
0
0
-0.5
-1.5
-5.5
4
2.5
1.5
-5.5
0.5
1.5
1
0.5
1
-9.5
-7.5
-12
-10
2.5
2.5
-2.5
0.5
1
13.5
6
-3
-1
0
0
0
0.5
-1.5
-4.5
3.5
5
2
1.5
6.5
7
-1.5
-6
-3.5
-10.5
-12
-27.5
-8.5
-4
-6.5
0.5
3
4
7
2.5
-2
-2
0
0
0
0
-3.5
-3.5
2
5.5
5
4
-0.5
7.5
3.5
-2
-7
-9.5
-7
-16.5
-4.5
-3
-1
2
-1.5
13.5
4.5
1.5
-2.5
-1.5
0
0
0
0
-4.5
-1.5
1
5
5.5
5
11
3.5
3
-1.5
-5.5
-13.5
-19.5
-10
-1.5
-7
4.5
-2.5
2
8.5
4.5
-0.5
-2
-2
-0.5
0
0
-0.5
-6.5
4.5
4
2.5
4
4
10
-0.5
0.5
-2
-12.5
-10
-9.5
-3.5
-1
-8
-2.5
5.5
1.5
1.5
1
3
-3
-2
0.5
0
0
-0.5
-6.5
-2.5
-3
1
0.5
16
5
1
-6.5
-3.5
-14.5
-7.5
-7.5
-3.5
-1
-5.5
0.5
1
0
-3.5
2.5
3.5
-1
-1
0.5
0
0
-0.5
-9
-6
1.5
0
0.5
12
3
4.5
-9
-5
-6.5
-12
-5.5
-1.5
0.5
-1.5
-4.5
-14
-2
1
3
1
-1
-0.5
-0.5
0
0.5
-0.5
-5.5
-6.5
-3
0
-0.5
3
5
5.5
6
0.5
-7.5
-12.5
-2.5
-1.5
-4
-2.5
-0.5
-11
0
1.5
-1.5
-0.5
-1.5
-0.5
0
0
0.5
0
-5.5
-14.5
0
-1
-1
5
2.5
8
10
3
-2.5
-2
5
-5
-3
-2.5
-3.5
-2.5
1.5
-4
-3
-4.5
-0.5
0
0
0
0
-0.5
-4
-12
-2
0
-5.5
-4
-0.5
4
2
-2
8
-1
1
-5.5
2
-3.5
-9.5
0.5
-1.5
-6
-5
-4.5
-0.5
0.5
0
0
0
-1
-4
-4
-1.5
2
-4
0.5
-4
-2.5
5.5
13.5
5
1
-2.5
0.5
-0.5
-3
-9
-2
-4.5
-7.5
-4
-3
0
1
0
0
0
0
-2
-2
0.5
8
1
-1
3.5
0
3.5
8
3
3.5
-1.5
1
-1
0.5
-2
-5.5
-5
-5
-4
-1.5
0
0
0
0
0
-0.5
-1.5
-1.5
-0.5
-3
-3.5
-1
-0.5
-2
-7
-1
-1
1.5
-4.5
-4.5
-6
-3.5
-3
-6.5
-5
-4
-2
0
0
0
0
0
0
0
0
0
-2
-4
-7
-13.5
-12
-14
-16
-15.5
-15
-13.5
-11.5
-12
-10
-6.5
-4
-2.5
-2.5
-1
-0.5
0
0
0
0
0
0
0
0
0
-1
-2
-3
-7.5
-7
-9
-8.5
-7
-8.5
-8.5
-6.5
-6
-4.5
-3
-1.5
-1.5
-2
-1
-1
0
0
0
0
0
0
0
0
0
0
-0.5
-0.5
-0.5
0
0
-0.5
-1
-2
-2.5
-1.5
-1.5
-1.5
-1
-1
-0.5
-1.5
-1
-0.5
0
0
0
0
2
0
0
0
0
0
0
0
0
0
0
0
0
0
0
0
0
0
0
0
0
0
0
0
0
0
0
0
0
0
0
0
0
0
0
0
0
0
0
0
0
0
0
0.5
0
0
-0.5
0
0
0
0
0
0
0
0
0
0
0
0
0
0
0
0
0
0
-0.5
-0.5
-1
-2
0.5
-1
1.5
-0.5
2.5
1
0.5
-1
-0.5
-0.5
0
0
0
0
0
0
0
0
0
0
0
0
-0.5
-2
-2.5
-2
-6.5
-8
-5.5
-4.5
1
-5
-0.5
-3
-3
-4
-4
-1.5
-2
-1
-1
-0.5
0
0
0
0
0
0
0.5
1.5
-1.5
-3
-4
-2
-1.5
-2.5
-0.5
-3.5
-2
1
-1
-4
0.5
-0.5
-2
1
-2.5
0.5
-2
-1.5
0
0
0
0
0
0
1
0.5
-1
-4.5
-6
-7.5
-5
-2.5
0
1.5
0.5
1.5
-1
-4
-1.5
3.5
5
1
2
2.5
-0.5
-1
0
0
0
0
0
0
1
-1
-2.5
-2.5
-2
-2
-3
-7.5
-1
-2
-4
-10
-21
-3
-3
0
-1.5
1.5
-7
-2
-0.5
-2.5
0
0
0
-0.5
0
-0.5
1
0
0
-6
-5
-2.5
-2.5
-2
2
-12.5
-0.5
-3.5
-15.5
-2.5
-8
-2
-2
0.5
-7
-2
-4.5
-4
-0.5
0
0
-0.5
0
-0.5
1
0
-2
-5
-4.5
-9
-2.5
3
-2
-0.5
-1.5
-1.5
-1.5
0.5
-5.5
-6
-1
-3.5
-6
-3.5
-5
-4
-0.5
0
0
-0.5
0
-1
0
-2.5
-3
-4.5
-3.5
-4
-2.5
-3.5
-17.5
-0.5
0.5
19.5
2
-2.5
-13
-5.5
-2
-7.5
-3.5
-5.5
-7.5
-3.5
-1
-0.5
0
-0.5
0
-0.5
0.5
-3.5
-5.5
-2.5
-4
-4
-2.5
-2
-9.5
1
5.5
33
1
-3.5
-20
-0.5
-4
-4.5
-2.5
-3.5
-4.5
-2
-1
-0.5
0
0
0.5
0
0.5
-3.5
-7
-6
-5.5
-5
0.5
-14
-7
2
31
9.5
4
-10
-6
-1
-9.5
-5
-1.5
-2.5
-3
-1
-1
-1
0
0
0
0
1
0.5
-3.5
-5
-3
-1.5
-7.5
-19
2.5
8
25
4.5
0.5
4.5
-1.5
-2.5
-6.5
-2.5
0.5
-2
-2
-1
-1.5
-1
0
0
0
0.5
2
-0.5
-1.5
-1.5
1.5
-2.5
-22
-7
0.5
18.5
5.5
6
15.5
0.5
-3
-13
-6
-2.5
-2.5
-3
-2.5
-0.5
-0.5
0
0
0
0
0
2.5
-1
-2
-3
0
-8.5
-23
-5
3
9.5
1.5
6.5
12.5
0
-5
-13
-6
-1.5
0
-1.5
-1
1
0.5
0
0
0
0
0.5
1.5
-2
-3
-1
-4.5
-14.5
-5.5
0
-6
2.5
1.5
12.5
1
-3.5
-22.5
-12
-7
-3.5
-2
-2
-1
1
0.5
0
0
0.5
0.5
0.5
1
-2.5
-3.5
-4
-2.5
-4
-0.5
-3.5
-14.5
3
5
0.5
-2
2.5
-25.5
-9.5
-5
-2
0.5
-1.5
-1
-2
-0.5
0
0
0.5
0
-1.5
-2
-4
-6.5
-5.5
-6.5
-6
-1
-13
-13
5.5
7
3
-0.5
-3.5
-15.5
-0.5
-1.5
-1
1
-1
-1.5
-3
-0.5
0
0
0.5
0
-1.5
-2.5
-10.5
-5
0
-0.5
1.5
-3.5
-14.5
-3
5
2.5
1.5
-3.5
-23
-7.5
-1.5
0
-1.5
-1
-3.5
-3
-1
0
0.5
0
0
-0.5
-0.5
-6.5
-11
-3.5
-1
-8.5
0
-3.5
-0.5
3.5
2
0.5
-1.5
-3
-10
-2.5
3
3.5
-3
-1.5
-2
-2
3
0.5
0.5
0
0
0
-1
-3.5
-1
7
1
-2
1.5
-0.5
-1
1.5
11
-8
-3
-2.5
-2
3.5
9.5
3.5
-2
-3
-2.5
0
2
0.5
0
0
0
-0.5
-1
-2.5
3.5
3
0
-2
1.5
-1
2.5
-2
-4
0.5
2
-1
2.5
5.5
3
1.5
2
-1
-2.5
-1.5
1
0.5
0
0
0
-0.5
-0.5
1
6.5
2
1
1.5
7.5
-3
-4
-11
-4
-1.5
5
-0.5
6
13
6.5
3.5
3.5
-3.5
-3
0.5
-1
0.5
0
0
0
-0.5
-0.5
-1
4.5
5.5
-1.5
-1.5
2
2.5
-0.5
-9.5
-2.5
2
3
0.5
2
11.5
4
0
0
-1.5
-2
0.5
0.5
1
0
0
0
0
-0.5
-1.5
2.5
4
0.5
-8.5
-4
-2.5
-15.5
-19.5
-7
-5.5
-4.5
-5
-4.5
2
2
1
0.5
0
-0.5
0
0.5
0.5
0
0
0
0
0
-1
-1.5
-1.5
-3.5
-5.5
-7
-10.5
-13.5
-12.5
-9.5
-10
-4.5
-6.5
-5.5
-3
-1
-1
-0.5
0
0
0
0
0
0
0
0
0
-0.5
-0.5
-0.5
-0.5
0
-1.5
-2.5
-4
-5.5
-6
-6.5
-6
-4
-3.5
-2.5
-0.5
-0.5
-0.5
0
0
0
0
0
0
0
0
0
0
0
0
0
0
0
-0.5
-0.5
0
-1
-0.5
-0.5
-0.5
0
0
0
0
0
0
0
0
0
0
0
0
0
-39.5
0
0
0
0
0
0
0
0
0
0
0
0
0
0
0
0
0
0
0
0
0
0
0
0
0
0
0
0
0
0
0
0
0
0
0
0
-0.5
-1
-2
-1.5
-2
-2
-1.5
-1
-2.5
-2
-1.5
0
0
0
0
0
0
0
0
0
0
0
0
0
0
0
0
0
0
-3.5
-4
-6
-3
-5.5
-10
-19
-10
-3
-11.5
-7
-5.5
-3.5
-2
-1.5
-1
0
0
0
0
0
0
0
-0.5
-1
-1
2.5
2.5
-0.5
-1
-8
0
-3
-7.5
-9.5
-1.5
1
-3.5
-4
-6
-4
-3
-2
-1.5
-0.5
0
0
0
0
-0.5
0
1
0.5
-2.5
1.5
1.5
2
-2.5
0
2.5
1.5
0
-3
-3
7.5
-2.5
-5
-14
-3.5
-2
-6.5
-4.5
-1
0
0
0
0
0
2
2
-2.5
-1.5
-4
-3
3.5
5
13.5
3.5
6.5
9.5
3
1
11.5
2.5
2
-11
-5.5
-3.5
-7
-7.5
-1.5
0
0
0
0
0.5
2
-1.5
-3
5.5
-9
2
-2.5
4.5
0
-2.5
14.5
4
1.5
7
2
0.5
3
4
0
-1
-8
-5
1.5
0.5
0
0
0
-0.5
1
-3
-4.5
-6.5
1.5
-2
2
-3.5
0.5
2.5
10
5
-2
-10.5
-3.5
-6.5
10
-1
-0.5
5.5
-3
-10.5
-1.5
0.5
0
0
0
-1.5
-1
-6.5
-1
-5.5
1.5
3.5
-1.5
3
-1
-6.5
-2
3.5
-7
5.5
-4
-2
6
-2
-0.5
4
-1
-11
-6
-0.5
0
0
-0.5
-1.5
-1.5
-0.5
1
-1.5
0
-0.5
-3
1.5
7.5
-7
-1.5
-5
8
-1.5
1.5
-2
2.5
2
-4.5
-1
1
-13
-5
0
0
0
-0.5
-1.5
-2
-0.5
8.5
1
3.5
2.5
-1.5
5.5
-9.5
-9
-2
-3
-9
-3
-1
-4.5
0.5
1.5
-9
-1
-5
-10
-3
0.5
0
0
0
-0.5
-0.5
-1.5
4.5
-4
-7
-21.5
-10.5
-10
-26
-11
-8
-48
-1.5
-5.5
-8
-1.5
3
2
-1.5
-3.5
-8.5
-3
3.5
1
0
0
0
-1
-4.5
-5.5
-11.5
-7.5
-9.5
-23.5
0
-13
-33.5
-10
-5
-46.5
-5
-7.5
-13.5
-1
1
10.5
0.5
-3
-18.5
-1
9
5
1
0
0
-1
-4.5
-8.5
-10.5
-11.5
-11.5
-10
-3.5
-26.5
-9.5
1.5
-26.5
-2
-6.5
-33.5
-5
-3
-12.5
-0.5
-5.5
-12
-4
7.5
16
12.5
1.5
0
-0.5
-1
-2
-0.5
-5
-6
-20
0.5
-3.5
-10
4.5
0.5
7.5
9.5
-4
-20
-1.5
-1.5
-14.5
1.5
-1
-17.5
-5
6.5
13
10.5
1.5
0
-0.5
-0.5
2.5
4
2.5
4
-0.5
-2
0
3.5
1.5
8
1
-1
-16.5
3
-1
-4.5
-10.5
-0.5
-0.5
-13
-7
0.5
6
10
2
0
-0.5
-1.5
-0.5
1
6.5
5.5
1
1
12.5
6
2
20
6
0.5
-5.5
9.5
2.5
13.5
-2.5
6
1.5
0
2.5
11.5
15
12.5
2
0
-0.5
-2
0.5
8.5
13
6
3
12.5
3
0
27
25.5
3
9
4
3
1.5
8
-3
-2
-3
-5
-0.5
20
10.5
8
1.5
0
0
-2.5
-1
5.5
16
-2.5
0
18
-2
-4
20.5
5
6.5
6.5
3
0
-14
0
-0.5
6.5
-4
0.5
9
12
9
5.5
0
0
0
-4
-2.5
-0.5
21
5
4
11.5
0
6
22
2
7
9
1
0.5
0.5
-0.5
1.5
4.5
2
4
8.5
8
1.5
3
-0.5
0
0
-3
0
2
7.5
1
11
3.5
4
-3.5
0.5
-2.5
-6.5
1.5
2
1.5
-2.5
-2.5
23.5
4.5
5.5
12.5
5
8
3.5
1
-0.5
0
0
-4
-2
-0.5
1.5
3.5
9.5
4
0.5
7
-2
-6
-19.5
-5.5
-3
-18.5
-10.5
-1
18.5
4.5
3
9
6.5
7
-0.5
-1.5
0
0
0
-2
-2.5
2
3
5
3
-5.5
-5.5
0.5
-1
-3
-3
-4.5
-18
-10
4
14.5
19
1
2
16.5
8.5
3.5
3
-1
0
0
0
0
-4.5
0
0.5
-1
1
-3
-7
-4.5
-5.5
-6.5
-6
-7
-6.5
0
2
16
8.5
1.5
9
9
5.5
0.5
2.5
-1
0
0
0
0
-4
-6
-7.5
-4.5
-6.5
-5.5
-4.5
-6
-0.5
-2
-2
-3.5
-4.5
0
-2.5
3.5
1
-5.5
-7.5
-2.5
3.5
2.5
3
0.5
0
0
0
0
-1.5
-3
-5.5
-6.5
-7.5
-10
-8
-11.5
-13
-5
-1.5
-3.5
-3
-4
-5.5
-3
-5.5
-7.5
-6.5
-7.5
-5
-1.5
0.5
0.5
0
0
0
0
0
0
0
-1.5
-2
-2
-2.5
-4.5
-5.5
-5.5
-3
-4
-4.5
-5
-3
-2
-2.5
-1.5
-1.5
-1
0
0
0
0
0
0
0
0
0
0
0
0
0
0
0
-1
-1.5
-0.5
-0.5
-0.5
-0.5
-0.5
0
0
-0.5
-0.5
-0.5
0
0
0
0
0
0
-66.5
0
0
0
0
0
0
0
0
0
0
0
0
0
0
0
0
0
0
0
0
0
0
0
0
0
0
0
0
0
0
0
0
0
0
0
0
0
0
0
0
0
0
0
0
0
0
0
0
0
0
0
0
0
0
0
0
0
0
0
0
0
0
0
0
0
0
0
0
-0.5
-1.5
-2
-1
-1.5
-2
-1.5
-2.5
-0.5
-0.5
-0.5
-0.5
0
0
0
0
0
0
0
0
0
1
-0.5
0.5
-1
3
-1.5
2
-0.5
2.5
3
0.5
1
1.5
1
-1.5
3.5
1
-0.5
-2.5
0
0
0
0
0
0
0
0.5
4
4
4.5
4.5
12
4
5
-1
1.5
1.5
7.5
0
4
-10
-3.5
0
-1
-5
-5.5
-8
-2.5
0
0
0
0
0
0
3
11
11
-0.5
4
9.5
0.5
2
13
7.5
5
9.5
5
-3
-9.5
-2
-0.5
-5
0
-7.5
-14
-2
-0.5
0
0
0
0.5
0
2.5
6.5
4
1.5
5
1.5
3
15.5
6
5
10
2
4
-4
1.5
2.5
-8.5
-3
-2
-13
-4
-2.5
-1.5
0
0
-0.5
0
-1
-0.5
7
-1.5
2.5
3.5
0
0.5
-0.5
2
-2
4.5
0
2
3
-0.5
0
-11.5
-2
-4
-26
-9.5
-7.5
-4.5
-0.5
0
-0.5
-1
-3.5
-4.5
1
0.5
7
0
-1
-3
-1
-2
-22.5
2
3.5
7
3.5
-2
10.5
-14.5
-2
5.5
-4.5
-2
-13
-8
-0.5
0
-0.5
-1.5
-2
-3
3.5
1.5
11.5
-0.5
0
-20.5
-3
-7
-33.5
-6
1.5
32
6.5
4.5
30.5
2.5
0
24
0
-4.5
-13
-6
-0.5
-0.5
0
-0.5
-0.5
0.5
3.5
5
6
-6.5
-15
-7
-7.5
-39
-38
-5.5
6
20.5
7.5
2
7
1.5
1.5
10
5
0
-6
-1.5
-0.5
-0.5
0
-1
-1.5
0.5
2
-2.5
-5
-4
-29
-8.5
-4
-31
-2.5
3
37
0.5
6
9
7
2
10
2.5
-3
-10
-4
-1
0
0
0
-1.5
-2
1.5
2
-3.5
-3
-5.5
-22.5
-8
-3.5
6.5
1.5
7
37
5.5
4.5
16.5
-3
-7.5
-13
-2.5
-9
-12.5
-3
0.5
0
0
0
-1
-2
-1.5
-2
-5.5
-1.5
-9
-3.5
-0.5
-1
3.5
4
26.5
11.5
1
4
2
-2.5
7
-4
-4
-21.5
-10.5
-2
-0.5
-1.5
-0.5
0
-0.5
-1
-1.5
-2.5
-2
-3.5
-10.5
-3.5
-1.5
-1
4
-1.5
11
2
-2.5
3.5
3
-1
9
-1.5
-2
-2.5
-5
-0.5
-3.5
-1.5
-0.5
0
0
2.5
4
-1
1
-6
-1
0
-2.5
-1.5
2
1
4
2.5
-9
-5
1
21.5
8
-1.5
3
-0.5
4.5
-1.5
-7
-2.5
0
0
0.5
5
8.5
3
-1
-1
-3
-2.5
-19.5
0
-3.5
3.5
0
-2.5
-26
-3.5
4
18.5
3.5
4.5
2.5
4.5
1
-7
-9
-2.5
0
0
1
5.5
9.5
0.5
4.5
1
-5
-13
-11
-7
-36
-26.5
-8
-5
-12.5
-2
4
4
3.5
0
1
3.5
-2
-9
-9.5
-0.5
0
0
0.5
6.5
10
3.5
7
1.5
0.5
-15
-5
-8
-34
-5
-7.5
-36.5
-3
3.5
18
2
4.5
-2.5
7
8
1.5
-8
-6
-0.5
0
0
0
3.5
9.5
15.5
15
0
-5.5
-6
-5.5
-5
-10
-5
-9.5
-34.5
2.5
1.5
20
3
-1
-6.5
1
1
-6
-11
-6
-1
0
0
0
1
9.5
20
8.5
-0.5
-0.5
-3.5
-7
5.5
-1
-1
-7.5
-2.5
-5
-2.5
2.5
1
-8
-1
-2
-8
-3
-8.5
-4.5
0.5
0
0
0
0.5
4.5
16.5
1.5
6
3
-3.5
3
7
4
2
-13
0.5
2.5
-1
1
3
-8.5
5
0
-19
-3.5
-10
-2
0
0
0
0
-1
-1
5.5
2
20
2
6
10
1.5
-1
-8.5
0.5
2
5.5
-0.5
4.5
8.5
-8
0.5
-1.5
-14.5
-4.5
-4.5
-1
0
0
0
0
0.5
4
6
6.5
17.5
4.5
-1.5
6.5
3.5
3
5.5
2.5
0.5
-5
-4
3.5
-2
5
1
-1
-4
-2
-2.5
-0.5
0
0
0
0
0
3.5
5
10
6.5
6.5
15.5
5.5
0.5
-3
7.5
3
4
7.5
0
3
12.5
-1.5
-2
-5
2
0.5
-1
-0.5
0
0
0
0
0
0
1.5
1.5
-0.5
3
4.5
3.5
1.5
4.5
3
4
-3
-5
1.5
2.5
-3
1
3
-1
-0.5
-0.5
0
0
0
0
0
0
0
0
0
0.5
-0.5
-2
-1.5
-3
-0.5
-3
-3.5
-9.5
-8.5
-6
-2.5
-1
-1
-1.5
0
1
0
0
0
0
0
0
0
0
0
0
0
0
0
0
-1
-1.5
-2.5
-1.5
-1
0
-1
-1.5
-2
-1
-0.5
0
0
0
0
0
0
0
0
0
-30
0
0
0
0
0
0
0
0
0
0
0
0
0
0
0
0
0
0
0
0
0
0
0
0
0
0
0
0
0
0
0
0
0
-0.5
-1
-1.5
-2
-2.5
-2
-3
-3
-2
-1.5
-3
-2.5
-1
-1
-0.5
-0.5
-0.5
-0.5
-0.5
0
0
0
0
0
0
0
0
-0.5
-0.5
-1.5
-4.5
-5
-6
-7.5
-10.5
-12
-9
-6.5
-6
-10.5
-8
-8.5
-5
-2.5
-2.5
-2.5
-1.5
-1
0
0
0
0
0
0
0
0
-0.5
-3
-6
-6.5
-9
-8
-11.5
-18.5
-11.5
-8
-9
-9
-11
-10.5
-6.5
-1.5
-1
-0.5
1
-0.5
-0.5
0
0
0
0
0
0
1.5
3
0
-1.5
-3
-4.5
-8
-14
-4.5
-6.5
-4.5
-4
-4.5
-1
1
0.5
6
2.5
1
0.5
1.5
1
-0.5
0
0
0
-0.5
-0.5
2.5
1
0
1
0.5
-2
0
-12.5
-4
2
4
5.5
2.5
1
0
-1
1
3
5
6
3.5
-2
-2
0
0
0
-1
-1
1
3.5
1.5
0.5
3.5
1
-2.5
0
-6
-8.5
-7.5
-6
-23
0
3
-6.5
2.5
4
19
10
5.5
0
-2
0
0
0
-0.5
0
2.5
0
-4.5
0.5
1.5
4
-19
5
-5.5
-23.5
-1.5
-11.5
-42.5
-2
0
-6.5
5
4
25.5
0.5
0.5
-4
0
0
0
-1
0
-0.5
2.5
-0.5
0.5
0
-2.5
-9
-5.5
-1
-12
-8
-4.5
-31.5
-8
0
2.5
-3
-5
4.5
13
-1
-0.5
-3.5
-1
0
0
-1.5
-1
-5.5
-3
-3
-5
0
-3
-0.5
-4.5
4
-6
-3
-7
-32
-5.5
0.5
6.5
5.5
3.5
-1.5
5.5
-3
-6.5
-3.5
-2.5
0
0
-0.5
-2.5
-2
-2.5
-9.5
-0.5
-1
-6
0
-2
12.5
7
-5
-3
-28.5
3.5
0
12
-6
-3
-8
-6.5
-7.5
-5
-2.5
-1
0
0
0
-2
-5.5
-7
-10.5
-2.5
-4
0
2.5
4
13.5
-1
-2
-32
-5
7.5
18.5
4
-4
0
-5.5
1.5
-14
-8
-4
-0.5
-0.5
0
-0.5
-1
-4
-6
-6.5
1.5
-2.5
2
1
2.5
23.5
-1
-7.5
-30.5
0.5
12
30.5
-6
-1.5
-1.5
-2
0
-14.5
-9
-4
-1
-0.5
0
-0.5
-0.5
-4
-1
3
4
18
0.5
-2.5
24.5
7.5
2.5
-8.5
-10.5
-4.5
22.5
11
-0.5
6
-5
5
0.5
-6.5
-7
-5.5
-6
0
0
0
-1
0
-1.5
7.5
2.5
24.5
4
-1
12.5
3.5
2.5
-8
-5
1.5
15
6.5
-0.5
5.5
4
-0.5
2.5
4
-3
-6.5
-4
0
0
0
0.5
-2
0.5
8
19.5
10.5
2.5
20
5
-0.5
14.5
-2.5
7.5
11.5
8.5
4
15
25
3
6.5
3.5
0.5
-1
-6
-5.5
0.5
0
0
-0.5
-5
0
3
11.5
6
-1
9
1.5
-1
3
8
4.5
19
4.5
1
12.5
2.5
1
18.5
3
-3.5
-7
-9
-4
0
0
0
-1
-5
-2
-1
-0.5
0
7
1
-2.5
0.5
12
0
9.5
22.5
5
3
2.5
4.5
0.5
7
-2
1
-4
-6
-0.5
0
0
0
-1.5
-5
-0.5
-5
-0.5
-0.5
8.5
-2.5
-3.5
-6.5
1
5.5
18
-1
-1.5
-6.5
1
-4.5
-9.5
5
-4
-2
-2
-4.5
0.5
0.5
0
0
-2
-4
-2.5
-3
-8
-5
-14
-6
-1
-11.5
1.5
1.5
5
-4
-5.5
-20.5
-1.5
-3.5
-8
0
-4
-3
-5
-2
0
0
0
0
-1.5
-1
-6.5
-2
-9
-17
-6.5
-10.5
-18
-9
-4
-12
-1
-0.5
-15.5
-6
3.5
-15
-8.5
-5
-5.5
-4.5
-3.5
-1.5
0
0
0
0
0
0
-4
-7
-14.5
-12.5
-3.5
-6.5
-14.5
-7
-5.5
-11.5
-2
1
4
-1.5
-1
1.5
-0.5
-0.5
-3.5
-3.5
-2
-2
0
0
0
0
0
-1
-3
-5
-10.5
-5
-5
-14.5
-1
-1.5
-18
-7
0
-8.5
2.5
4.5
2
3
1.5
3.5
6
-1.5
-1
-1
0
0
0
0
0
-1
-2
-3.5
-8.5
-5
-2.5
-6
2
-5
-18
-1.5
-1
-3
6.5
2
-2
3
-0.5
2
1.5
0
0
0
0
0
0
0
0
0
-1
2.5
-2.5
0
5
-0.5
-1
-8
-20.5
-2.5
-5
-8.5
-0.5
-1.5
-2
0
0
2.5
-0.5
2.5
-0.5
0.5
0
0
0
0
0
0
1.5
2
0
-2.5
-8
-6
-2
-14
-10
-7
-14
-6
-10
-25.5
-9.5
-10.5
-10.5
-7.5
-3
2
0
0
0
0
0
0
0
0
2
1.5
-1
-3.5
-10
-8.5
-8
-15
-16
-11.5
-19
-17.5
-15
-15
-9
-5
-4.5
-4
-2
0
0
0
0
0
0
0
0
0
0
0
-1
-1
-1
-1
0
-0.5
-1.5
-2
-3.5
-1.5
-1
-0.5
-1
-0.5
-0.5
-0.5
-0.5
0
0
0
0
0
22
0
0
0
0
0
0
0
0
0
0
0
0
0
0
0
0
0
0
0
0
0
0
0
0
0
0
0
0
0
0
0
0
0
0
0
0
0
0
0
0
-0.5
-0.5
0
0
0
-0.5
-0.5
-0.5
0
0
0
0
0
0
0
0
0
0
0
0
0
0
0
-0.5
-0.5
-1.5
-2
-4
-4
-5
-5
-9
-6
-5.5
-5
-2
-3
-3.5
-1
-1
0
0
0
0
0
0
0
0
0
0
-1.5
-2.5
-5
-3
-1.5
-2
-2
-2
-8
-1.5
-0.5
-2
-8.5
0
-5.5
-6
-4
-3
-1.5
-2.5
0
0
0
0
0
-0.5
-1.5
-2.5
-4.5
-5
-7.5
-6
-2
-6.5
-6.5
-5.5
-11.5
0
0
4.5
2
-0.5
-0.5
0
5.5
8.5
4.5
-0.5
0.5
-0.5
0
0
0
-1
-6
-5.5
-1.5
-5
-12
-1.5
2
-5
-1.5
-6.5
-11
-2.5
-6
-4
5.5
1
5.5
0.5
9
9.5
2
0
2
-0.5
0
0
0
-4
-7.5
-1.5
0
-7
1.5
-1.5
0
2.5
-2.5
-26.5
-2.5
-4
-4.5
1
1.5
15
-1
-1.5
17
7
3.5
16
2.5
-0.5
0
0
-0.5
-5.5
-13
-2
4
-4
-1.5
-5
-4.5
-3.5
-5.5
-13.5
-5.5
-2
-7
2
-2
14.5
4
5.5
6.5
3.5
6.5
22.5
4.5
0
0
0
-2
-6.5
-9
2.5
-2
1.5
-6.5
11
0.5
0
9.5
-2
0
-12
-5
-1.5
2
-8.5
-1
-1
4
2
11
27.5
3
0
0
-0.5
-1.5
-7.5
-8.5
2
-6
-5.5
1.5
14
-6.5
4.5
21
1
-2.5
-41
-3.5
-6
-30
-1.5
-3
-12
-5.5
2.5
41
17
4.5
0
0
-2
-2.5
-6.5
-3
6
2
8
15
2.5
0.5
54.5
32
-3
-3
-10.5
-2.5
-3
-33
-14
-9.5
-16
-5
-0.5
41.5
19.5
6
0.5
0
-2
-3
-2
3
8
7
-1.5
15
0.5
-1.5
49
5
1.5
16
-1
-7
-18.5
-7.5
-9.5
-27.5
-14
-16
-16.5
9
17.5
8
0.5
0
-1.5
-2
-1.5
3
7
4
3.5
1.5
3.5
2
47
-1
1.5
9
3.5
-10
-23
-4.5
-2
-24
-10
-16
-35.5
-13
2
5.5
0
0
-1
-1.5
-1
2.5
5.5
0.5
4
2.5
7
25
1
2.5
23
-1
-3.5
-13.5
-11
3
-18
-3
-9.5
-18
-20
-22
-5.5
2
0
0
0
-1
0.5
3.5
-3
-1.5
-0.5
0
3.5
27
-0.5
4
7.5
-2
-5.5
-21.5
-2
0.5
13.5
-3
-2.5
-21.5
-5.5
-10
-3.5
-0.5
0
-0.5
0
-0.5
2.5
4.5
-5
-26.5
-4
-3
-6
5
1
4.5
-5
-3
-9
1
0.5
-5
-3.5
-4
-0.5
-8
2.5
0
-6
-3
-1
-0.5
0
0
0
-4
-3
-7
-3.5
-2.5
-10.5
-4
1.5
-16
-3
-2
-36.5
-3.5
0.5
3.5
2.5
-7.5
-10
-6
-1.5
3
-6.5
-3.5
-1
0
0
0
-0.5
2
13
2
-1
-30.5
0
-7
-40.5
-33.5
-9.5
-6.5
-24
-0.5
1
20.5
2
-3
-13
2.5
5
6
-9
-2
-2
0
-0.5
-1
-1
4.5
19.5
0.5
-7.5
-31.5
-1
-5.5
-27
-7
-6.5
-7
-1
2.5
1.5
5.5
-5
-11.5
-5
-1
4
4
-9
-1
0
0
-0.5
0.5
-3.5
1.5
16.5
4
9
3.5
-0.5
-2.5
-1
4
0.5
13.5
-0.5
-4
23.5
0
-2
-6.5
-4.5
2
3.5
4.5
-5
-1.5
0
0
0
-0.5
-4.5
3
7
-8
21.5
3
4.5
0.5
1.5
8.5
9.5
2
-3.5
3
3.5
2
-9.5
1
5
2
3.5
-0.5
-7.5
-2.5
0
0
0
-1.5
-1.5
2
0
-1
23.5
2.5
10.5
2
-2.5
0.5
-9
-0.5
-0.5
1
-2.5
2.5
5.5
-3.5
1
10
9
4
-5
-1.5
0
0
0
-2.5
0.5
-0.5
-2
-16
-1
4
18
2
0.5
15
4
4
4
4
-1
4.5
4
0
5
13
-0.5
0
-2.5
-0.5
0
0
0
-0.5
1.5
2
4
-13
-0.5
1
6
2
0
6
2.5
-3
4.5
-0.5
0
1
-1.5
-2.5
14
4
1.5
0.5
-1
0.5
0
0
0
0
0.5
3
5.5
0
-3
-4.5
-1.5
0.5
-3.5
10
1.5
3.5
5
1
-0.5
-7
-2.5
1
-2
-0.5
-0.5
1
-1
-1
0
0
0
0
0.5
0
-1
0
2
-3.5
0
2
-1
3
0.5
1.5
1
-1
-1.5
1
-0.5
-4
-2
0.5
2
2
0
0
0
0
0
0
0
0
-0.5
-1
-3
-5
-6
-1.5
-0.5
-4
-3
-6
-3.5
-4.5
-4.5
-6
-4.5
-2
-1
-1.5
0
0
0
0
0
0
0
0
0
0
0
0
0
-0.5
-0.5
1
0
-1
-1.5
-2.5
-2
-0.5
-1
-1
-1
-1
-0.5
-0.5
0
0
0
0
0
-54.5
0
0
0
0
0
0
0
0
0
0
0
0
0
0
0
0
0
0
0
0
0
0
0
0
0
0
0
0
0
0
0
0
0
0
0.5
1
1.5
1.5
1.5
1.5
2
1.5
1.5
0.5
1.5
1.5
1.5
0
1
1
1
0
0
0
0
0
0
0
0
0
0
0
0.5
2
1.5
2
5.5
7
6
4.5
3.5
2
4.5
6.5
8.5
5.5
5
5
5
2
0.5
-0.5
0
0
0
0
0
0
0.5
2
0.5
2.5
-2.5
-2.5
3.5
-5
-1.5
0.5
-1
-6
0.5
1.5
3.5
1.5
5
5.5
4.5
2.5
3.5
2.5
1
0
0
0
0.5
0
0
0.5
3
-1
-5
0
0
-10
-5
-4.5
-1
-4
-2.5
-2.5
0
5
9.5
4.5
1.5
1.5
0
0
2
1
0
0
0.5
0
0.5
0.5
-0.5
-1
-6
-1.5
-1
-8
0
-2
-6.5
0
-1
-0.5
-4.5
2.5
-2.5
-3.5
-3.5
-3.5
2.5
1.5
3
1
0
0
0
-1.5
-0.5
-2.5
-5
3
-4
-2
-4.5
-1
4.5
-8
-0.5
-4.5
-3
2
-2
-14.5
1
-3.5
-7
-7.5
0.5
-0.5
0
0
0
0
0
-2
-2.5
-5.5
-1
-4.5
-1.5
-2.5
-11
-1.5
-1.5
-17
-1
-7.5
-6
-1
-10
-25
-7.5
-10
-10
-10
-5.5
-0.5
-0.5
0
0
0
0
-3.5
-6.5
-7.5
-7.5
-2.5
0.5
-8
-1
-2.5
-16
-2.5
-1.5
-6
-5.5
-3
-33
-27
-8
-1
-9
-6
-7
-4.5
0
0
0
0
0
-1.5
-3.5
-6
-10
2.5
-2
-9
-1
-4
-3.5
1
3
-12
-8
-5
-30
-11
-9.5
-12.5
-5
-7.5
-6
-6.5
-3.5
-0.5
0
0
0
-2
-5.5
-1
-3
1
-9.5
0.5
-2.5
-27
-2
3
-3
-20
1.5
-7
-17.5
-8
-9
-7.5
-4.5
-2.5
-5
-5.5
-5
-1
0
0
0
-2
-5
-2.5
0.5
0
-13
2.5
-2.5
-2
2
0.5
-5
-5.5
-6
2
-2
2
-1
-2.5
3
4
0.5
-5
-3.5
-1
0
0
0
-2.5
-8
-7
5.5
-3
-6
-2.5
-1
0
1.5
-0.5
-2
0.5
1.5
4
0.5
4.5
-7.5
0.5
8
20.5
2
-3.5
-3.5
-0.5
0
0
0
-2
-6
-4
2.5
1
0.5
0
7.5
5.5
2.5
-7
-1.5
1.5
8.5
3
2.5
8
6
6
12.5
10.5
4
-2
-5
0
0
0
0
-1.5
-4.5
-2
0
6
-3.5
3
13.5
2
1.5
-4
-1.5
1
7.5
3.5
-1
-3.5
3
7
16
9.5
1.5
-1
-5.5
0
0
0
-0.5
-2
-3
-4
6
2.5
6
0
4
-1
-8.5
-1.5
2.5
6.5
8.5
-7
-11.5
-2
3.5
1.5
13
1.5
-2.5
-3
-6
-1
0
0
-0.5
-1
-6
-3
-1.5
1
-1
7
7
9
6.5
4.5
4.5
2.5
-4
-7.5
3.5
7
4.5
-0.5
0
-1.5
-5.5
-4
-4.5
-1
0
0
-0.5
-1
-5.5
-9
4
-2
4.5
4
1.5
21
2
3.5
-1
3.5
5
-2
-4
-1.5
6
5
0
-1.5
0.5
-5
-4.5
-0.5
0
0
-0.5
-2
-6
-12
-1.5
1
3
6
5
27.5
1.5
3.5
3
0
0
6.5
3.5
5
-1
-1
0.5
-6.5
0
-6
-3
-0.5
0
0
-0.5
-2.5
-9
-12.5
-0.5
-2
4
7
11.5
22
7.5
7.5
8.5
-3
4
6.5
3.5
2
-3.5
-3
-2
-5.5
-2.5
-2
-2.5
0
0
0
-0.5
-4
-9
-8
-5.5
-12.5
-6
4.5
12.5
7
7.5
9.5
0.5
1.5
7
-0.5
1
3.5
-3
-1.5
-5
-3.5
-3
-1.5
-2
0
0
0
-0.5
-3.5
-7
-5.5
-10
-14
1
-2
1
3
5.5
16
7
0.5
4.5
4
3.5
4
2
-2.5
-11
-7
-3
0
-0.5
0
0
0
0
-0.5
-3
-6.5
-8.5
-5.5
-2.5
-1.5
2.5
0
0
0
0.5
-7.5
4
-0.5
-1.5
3.5
-2.5
-4.5
-1
-3
-3
-1.5
0
0
0
0
0
0
0
-1.5
-2.5
-5.5
-6
-10.5
-4.5
-4
-5
-6.5
-8
-9
-1.5
-3
-4.5
-0.5
0
-1
0.5
-1.5
-1.5
-1
0
0
0
0
0
0
0
0
-0.5
-1.5
-2.5
-4.5
-7
-7.5
-5
-5.5
-4.5
-6
-6
-3
-4
-3
-3
-2
-1
-1
-1
-0.5
-0.5
0
0
0
0
0
0
0
0
0
-1
-1.5
-2.5
-1.5
-1.5
-1
-1.5
-1
-1.5
-2
-2.5
-1.5
-1.5
-0.5
0
0
-0.5
-0.5
-0.5
0
0
0
0
0
0
0
0
0
-0.5
-0.5
-0.5
0
0
0
0
0
-0.5
-0.5
-1
-0.5
-0.5
-0.5
0
0
0
0
0
0
0
0
0
0
0
0
0
0
0
0
0
0
0
0
0
0
0
0
0
0
0
0
0
0
0
0
0
0
1.5
0
0
0
0
0
0
0
0
0
0
0
0
0
0
0
0
0
0
0
0
0
0
0
0
0
0
0
0
0
0
0
0
0
0
0
0
0
0
0
0
0
0
-0.5
-0.5
-0.5
0
0
0
0
0
0
0
0
0
0
0
0
0
0
0
0
0
0
0
-1
-1
-0.5
-0.5
-1.5
-1.5
-1
-1
-1.5
-1
-1
-0.5
-0.5
0
0
0
0
0
0
0
0
0
0
0
0
0
0
-0.5
-1.5
-3
-3
-4.5
-4.5
-3
-1.5
-1.5
-1
-2
-2
-1.5
-0.5
0
0
0
0
0
0
0
0
0
0
0
-1
-1.5
-0.5
-2.5
-3
-4.5
-7
-4.5
-5.5
-7.5
-4.5
-6.5
-7.5
-10.5
-8
-4.5
-2.5
-0.5
0
-1
-0.5
-0.5
0
0
0
0
0
-0.5
-3.5
-0.5
1.5
1
-0.5
-0.5
-2
-2.5
3
-2
-4.5
-5.5
-4.5
-11
-9
-11.5
-11
-9.5
-5.5
-3.5
-0.5
0
0
0
0
0
1
3.5
2.5
0
4
2
-4
1
4
3
5
-5.5
-1.5
-1.5
-1.5
0
1
1.5
1
-3.5
-6.5
-5.5
-4.5
-2.5
-0.5
-0.5
0
0.5
1
3.5
-0.5
-2
3
15.5
7.5
4
15
0
0.5
-7.5
-5
-7
-10
-1.5
-0.5
1.5
-0.5
1
8
3
-3.5
-5
-1
0
0
1.5
2
8.5
4.5
0
8
4.5
-3
10.5
-1.5
3
13
4.5
1.5
5.5
-5.5
0
7
1.5
2.5
4
1.5
3
-2
-4
-2.5
-0.5
0
1.5
2
7.5
0.5
3.5
11.5
4
5
8
1.5
7.5
13.5
7
7
13.5
3.5
6
15.5
3
0.5
7.5
3.5
0.5
-4
-4.5
-3.5
-0.5
0
1.5
2.5
2.5
4
6
1
-0.5
-11.5
4.5
-2
10.5
20.5
9
2.5
24.5
6.5
8
13
2.5
2.5
8.5
2
0.5
-1.5
-2
-2.5
0
0
1
4.5
9
3
4
4.5
2
-1
-4.5
-1.5
-14
-4
0.5
-2
6.5
4.5
23.5
-2.5
-2
4.5
5
1
-6
-4.5
-1
0.5
2
0
2.5
4
9.5
4
6.5
0
2
1.5
-7.5
-1.5
-2.5
-6
-8
-23.5
3
3
19.5
3
2.5
-7.5
2
1.5
-6
-2
3
2
2
0
1
3.5
8
5.5
4.5
-2
-8
-4
-0.5
-3
3
-11.5
-63.5
-5
2.5
5
3
4
10
-3
2
7
-3
0
3
1
0
0
0.5
2
8
4.5
0.5
-2.5
-10
-3.5
-5.5
-9
-4.5
-13.5
-57.5
-5
-0.5
-3
2.5
7.5
25
4.5
4.5
10.5
0.5
-1.5
-2.5
-0.5
0
0
0
0.5
3
2.5
-0.5
-4
-4.5
-1.5
0
-7
-12.5
-46.5
-10.5
0
-18
3.5
6.5
34.5
28
1.5
9
13
3
-0.5
-1.5
-0.5
0
0
0
-0.5
0.5
-2.5
-2
-4.5
3.5
0
-15.5
-4
-4.5
-24.5
-4.5
-4
-14
-1.5
-1.5
11.5
2.5
3.5
5.5
1.5
2
-2.5
-5
-1
0
0
0
-0.5
1
0.5
0.5
-2
0.5
-0.5
-6.5
-7
-12.5
-7
-3.5
-8
-11.5
-2
-6
9.5
4
2.5
-2.5
1.5
-5
-3.5
-1
1
0
0
0
0
1.5
1.5
-1.5
-1.5
-2.5
-13
-4.5
-7.5
-13
1
-1
8
-7
-3
-9.5
1
1.5
-4.5
-1.5
0
-4.5
-8.5
-0.5
2
0
0
0.5
0.5
1.5
0.5
-2.5
-10
-4.5
-8
-1.5
-3.5
-9.5
1.5
4
1
-5
-3.5
-15.5
-6.5
-9.5
-6
-6.5
-6
-9.5
-6.5
-2.5
0
0
0
0
0.5
0
0.5
-0.5
-6
-8
-4.5
-1
-7.5
0
-2
11
-2
-3
-6
-7
-6
-9
-5
-6
-9
-6
-1.5
-1.5
0
0
0
0
-1
-3
-4
-0.5
-7
-5
-2.5
-3
-16.5
-0.5
-1
6.5
-0.5
-5.5
-17.5
-5.5
-3
-14.5
-6.5
-4
-7
-6
-0.5
-0.5
0
0
0
0
-2
-4.5
-4
-4
0.5
4.5
-0.5
-5
2
-1.5
-13.5
0
-3
-6.5
0
-1.5
-9.5
-12
-4
-7.5
-7
-5.5
-0.5
0
0
0
0
0
-2.5
-4.5
-3.5
0
3
1
-3
2.5
0
-4.5
-7.5
0.5
-3
1
3
-2
-4.5
-5
-1
-6.5
-7
-6
-1
0
0
0
0
0
-1
-2.5
0
3.5
4.5
5.5
2.5
0.5
0.5
10.5
-7.5
-1
3
10.5
0
-0.5
-2.5
-3
2.5
-5.5
-6.5
-5
-2
-1
0
0
0
0
-0.5
1.5
1.5
3.5
3
-1
10.5
6.5
8
13
4.5
0
16.5
3.5
4.5
-4.5
-1.5
2
1
-3.5
-2.5
-1.5
-1
0
0
0
0
0
0
0
0
-3
-0.5
0
10
4.5
3.5
4.5
0.5
5.5
5.5
6
3.5
0.5
4
4.5
2
-2
2
1
0
0
0
0
0
0
0
0
0
0
1
1
2
1.5
3.5
3.5
2
5.5
7
4.5
3
2.5
1.5
1.5
1.5
1
1
1
0
0
0
0
-133
1
1
1
1
1
1
1
1
1
1
1
1
1
1
1
1
1
1
1
1
1
1
1
1
1
1
1
1
1
1
1
1
1
1
1
1
1
1
1
1
0.5
0.5
0.5
1
1
1
1
1
1
1
1
1
1
1
1
1
1
1
1
1
1
1
1
1
1
1
1
0
-1
-3.5
-3.5
-4.5
-3
-1.5
-2.5
-2
-1
0
1
1
1
1
1
1
1
1
1
1
1
1
1
1
1.5
0.5
-1.5
-4
-5
-6.5
-6
-4.5
-4.5
-6.5
-6
-2
-1.5
1
2.5
1.5
1.5
1
1
1
1
1
1
1
0.5
0
2
0.5
3.5
2
-0.5
4.5
5.5
1.5
-1
-2
3
4.5
1.5
-6
-2
1
0
-4.5
2
3
2
1.5
1
1
1
0
-3.5
-4.5
-0.5
-6
-9.5
-3
-1
-3.5
0.5
-2.5
-7.5
3
5.5
16.5
0.5
2
6.5
-2
1.5
-12
-2.5
-1
2.5
1
1
1
1
-1.5
-1.5
-1
-2.5
4.5
0.5
2
-4.5
-2
-2.5
-1
4.5
9.5
26
8
2
1
5.5
3.5
12.5
3.5
0
-3
0
1
1
1
1
-3.5
-1
1
-0.5
0
-0.5
2.5
7
3
6
15.5
-0.5
6.5
-7
4.5
-2.5
-4
0.5
-3
7.5
4
3.5
-4.5
-1.5
1.5
1
1
1
-5
-2.5
5
1.5
0
8.5
16.5
1
-2
12.5
2
2.5
-7.5
-6.5
-2
15.5
26.5
-2
-1
19
1.5
4
1
0.5
1
1
1
-0.5
-6
1
2.5
4
-4.5
3.5
17
2.5
2.5
28.5
6
-1
-15
-3
-0.5
8
2
-1.5
17.5
6
1
6.5
-1
1
0.5
1
0.5
-0.5
-4
-2.5
4
-4.5
0.5
35.5
7
6.5
24
29.5
7
4.5
9.5
-6.5
1.5
29
1
5.5
17.5
9.5
4
15
1
3
-0.5
1
0.5
0
-4.5
6.5
13.5
7.5
2
37.5
7.5
7.5
38.5
6.5
5.5
34
5.5
-2.5
6.5
0.5
-2
8
7
7
18.5
5
0
3.5
0
1
0.5
0
-1
7
18
1
3.5
24.5
3
2
23.5
1.5
3.5
4
-2
0.5
25.5
2.5
1
8.5
6
13
9
6
6.5
3
0.5
1
0.5
0.5
0
4.5
8.5
4.5
-17
0.5
-4.5
-10
11.5
9
11
5.5
3
7.5
2.5
5.5
9
-0.5
10
-7
-4
2
6.5
1.5
1
1
1
1
2
0.5
-3.5
-8.5
-35.5
-7.5
-0.5
-3.5
2.5
5.5
12.5
7.5
6
5
-1.5
1
-28
-8
1.5
-9.5
-6
-2.5
4.5
1.5
1
1
1
1
1.5
-2
-3.5
-10
-7.5
1.5
-30.5
2
3
15
8
5.5
-2
3.5
-3.5
-35.5
-46
6.5
-4.5
-22
-5
-1.5
1
-0.5
1
1
1
1
1.5
-4
-4
-12
2.5
-0.5
-6
1
12.5
45
8.5
3.5
-6.5
1
-2.5
-41
-12
-2.5
-9.5
-4.5
-1
0
-0.5
0
1
1
1
1
0
-3
-21.5
2
-6
7
4.5
6.5
78
53.5
5
2.5
-10.5
2.5
-2.5
-16
1.5
0.5
-12.5
0.5
7
2.5
-1
0
1
1
1
0.5
-4.5
-5.5
-10
-1.5
8.5
26
3
12
48.5
9.5
0.5
-21
-1.5
-4
-16
-5.5
-2
2
4.5
2.5
7
-2.5
-5
0
1
1
1
0.5
-6.5
-7.5
-5.5
3.5
4.5
19
1
4
26.5
3
-5
-36
2
0
-8.5
2
-4.5
0.5
1.5
-1
6.5
-4.5
-4
0.5
1
1
1
1
-5.5
-8.5
4.5
-2
-18.5
4
3.5
1.5
-2
-2.5
-45.5
-6.5
0
-20.5
-1
-4
-7
-2
0.5
-0.5
1
-3
-7.5
0.5
1
1
1
1
-4
-11
-4
-3.5
-15
2.5
2
0.5
1.5
-4.5
-14
1
1
0
3
-3.5
3.5
-1
4
-1
-1.5
-3.5
-3
0
1
1
1
1
-0.5
-5
1.5
-4
-1
1
2
5.5
2.5
12
3.5
6.5
29.5
6.5
-4.5
10
6
4.5
0
5.5
-1
-3.5
-2
0
1
1
1
1
0.5
-7
-3
0.5
-0.5
0
-13
-2.5
6
34.5
13.5
10.5
35.5
4
-3
18.5
1.5
1.5
8.5
-0.5
-3
-1
-0.5
0
1
1
1
1
-0.5
-6
-14
-1.5
-6.5
-4
0.5
3
-15.5
0
1.5
1.5
1
0
2
6
5
3.5
8.5
4
1
0
1
1
1
1
1
1
0
-2
-3
-3.5
-5
-9.5
-3.5
-1.5
-11.5
-1.5
-2
0.5
5.5
3
-3
1.5
-1
-2.5
-2
-0.5
0
1
1
1
1
1
1
1
1
1
-0.5
-2
-5
-6
-5.5
-6.5
-5
-6
-7
-6
-4
-2.5
-2.5
-2.5
-1
-1.5
0
0.5
0.5
1
1
1
1
1
1
1
1
1
1
1
1
1
1
0.5
0
0
-0.5
0
0.5
0
-0.5
0
0
1
1
1
1
1
1
1
1
-67.5
0
0
0
0
0
0
0
0
0
0
0
0
-0.5
-0.5
0
0
0
0
0
0
0
0
0
0
0
0
0
0
0
0
0
0
0
0
0
0
0
0
0
0
-0.5
-0.5
0
-0.5
-0.5
-1
-1.5
-1.5
-2
-0.5
-0.5
-0.5
0
0
0
0
0
0
-0.5
0
0
0
0
0
-0.5
0
-1
-1.5
-3
-2.5
-1.5
-2
-3
-4.5
-4.5
-3.5
-2
-1
-1
-0.5
0
0
0
0
0
0
-0.5
-1
0
0
0
-1
-1
-1
-2
-3
-5
-6
-6.5
-7
-7
-7.5
-6.5
-4
-2
-1
-1
-0.5
0
0
0
0
0
0
0
-0.5
0
0
0
-2.5
-3.5
-4
-1
-2
-7
-7.5
-14.5
-7.5
-10.5
-15.5
-8
-8
-4.5
-3
-5
-3
-0.5
0
0
0
0
0
0
-1
-1.5
-3
-2.5
-6.5
-9.5
-6
-1
3
5.5
-0.5
-19
-7.5
-3.5
-22.5
-9
-4
-9
-6.5
-9.5
-8.5
-3
-1.5
-0.5
0
0
-0.5
-0.5
-1.5
-4
-5.5
-9
-13.5
-9.5
-2
-0.5
6
2
25
3.5
5.5
34.5
8
0.5
10.5
-1
2
-23
-10.5
-5.5
-5
-2.5
-0.5
0
-0.5
-1
-6
-8.5
-6
-10.5
-15.5
-5
-3
-5
1.5
4
25.5
9
16
49.5
9.5
1
-26
-2
-5
-27
-6.5
-7.5
-8.5
-3.5
-0.5
0
-1
-2
-8
-5.5
-7.5
-13
-3.5
-4
-16
-7.5
-3.5
10
6
7.5
16
9
1.5
-3
-10
2
0
-10
-6.5
-9
-8.5
-4.5
-0.5
0
-1
-3
-10
-5.5
-3
-13.5
-9.5
-1
-1
7
0.5
-4.5
0.5
-2
-9
2.5
-3
-1.5
-2.5
-4.5
-12.5
-2.5
-6
-16
-7.5
-2
-1
0
-1
-4
-7
1
2
0.5
-1.5
11.5
-2
9.5
23.5
-1
-0.5
-7.5
-11
-4
-2
-7
1
4.5
1.5
-5
1
-14
-5
-3.5
-1.5
0
-2.5
-2.5
-5.5
4.5
13.5
1.5
3.5
24.5
4.5
1.5
29.5
3.5
-1.5
4.5
-4.5
-4
11.5
4.5
4.5
29.5
3.5
9.5
1
-7.5
-4
-3.5
-1
-0.5
-3
-5
-2
18
24.5
-1
5.5
28
0.5
5.5
-4
-1
-2
46.5
2.5
1.5
14.5
2
1
18
-0.5
5
1
-5.5
-3.5
-2
0
0
-2
-3.5
-2
22
6.5
2
19
5.5
1.5
4.5
-1
-1
19
11
-3
4
-3.5
-3
5.5
9.5
1
10.5
-1.5
-6.5
-4.5
-1
0
0
-0.5
-3
-3.5
19
2.5
0.5
24.5
1
10.5
20
1.5
4
22
6
-1.5
-3.5
2
1.5
-9
-2
3.5
7
-0.5
-9
-5
-1
0
0
0
-2.5
-4.5
9.5
-3.5
2.5
3.5
1.5
10
3.5
3
11
1.5
1.5
-23.5
-1
1
-6.5
-27
-1.5
-5
-10.5
-3.5
-11.5
-4
-1.5
0
0
0
-1.5
-2
3.5
-9.5
-3
-2
3.5
3.5
1
1.5
5
-3.5
-3
-28.5
4
5.5
-19
4
1
-14.5
-4.5
-2.5
-7.5
-3.5
-1
0
0
0
-1
-4
-1.5
-9
-4.5
2
9
-3
4.5
7
-9
4
0
-15.5
0.5
-4
-9.5
-1
2
-16.5
-3.5
-6
-7
-3.5
-1
0
0
0
-1.5
-5
-3
-6.5
5.5
0
7.5
1
1
1
5.5
0
7.5
-2
5
-27
1.5
-1
5
-6
-4
-7
-8
-4
-1
0
0
-1
-1
-5.5
-2.5
-5.5
0
0
-1.5
-5
-7.5
-26
-2
3
-8
3.5
0.5
-17.5
5
-6.5
4
-1
-1
-7.5
-3
-1
-0.5
0
0
-0.5
-1
-3.5
-3.5
-0.5
-8
-10
-8.5
-10.5
-32.5
-9.5
-2.5
-23
-1
-4
-30
-0.5
4.5
-3.5
2.5
5.5
-8.5
-2.5
-1
2
-0.5
0
0
0
0
1
-1.5
-1
-6.5
-11.5
-1.5
-6.5
-14.5
-1
-4.5
-24
1.5
-1.5
-30
0.5
-4
-7
-4.5
-4
-8
-1.5
2.5
3
-0.5
0
0
0
-0.5
-2.5
-2.5
-2
-3.5
-6
2
-1
-3
1
-1
-3
0.5
-24
-5.5
-4
1
-2
-1.5
-3
-3.5
4
2
1
-0.5
0
0
0
-0.5
-2.5
-2
1.5
-4
-6.5
-0.5
-3
-0.5
-2
-14
-4.5
-0.5
-34.5
-2.5
-1
-9
-2.5
2
-0.5
-2
4.5
2.5
-0.5
0
0
0
0
0
-2.5
0
-0.5
0
1
-5.5
-2
0
-11.5
-9
-0.5
-3
-28.5
-8
-0.5
-10.5
-4
9.5
9
3.5
2.5
0.5
0.5
-0.5
0
0
0
0
-1
0
-1.5
-2.5
0.5
-2
-0.5
-2
-2
0.5
0.5
3.5
2
4.5
17
7.5
9
11.5
10.5
3.5
-0.5
0
0
-0.5
0
0
0
0
0
0
1.5
3
1
2.5
3.5
1.5
3.5
3.5
2
10
9
1.5
15
7.5
1
2.5
4
-1.5
0
0.5
0
0
0
0
0
0
0
0
0
-0.5
-0.5
-0.5
0
-2.5
-1
-0.5
1
3
0
-3.5
-3.5
-2
-1.5
0
2
0
0
0
0
0
0
